digraph Tree {
node [shape=box] ;
0 [label="at <= 0.5\ngini = 0.829\nsamples = 41\nvalue = [7, 8, 7, 8, 6, 5]"] ;
1 [label="numeric <= 1.5\ngini = 0.794\nsamples = 34\nvalue = [7, 8, 0, 8, 6, 5]"] ;
0 -> 1 [labeldistance=2.5, labelangle=45, headlabel="True"] ;
2 [label="specialchars <= 2.5\ngini = 0.198\nsamples = 9\nvalue = [0, 0, 0, 8, 1, 0]"] ;
1 -> 2 ;
3 [label="gini = 0.0\nsamples = 8\nvalue = [0, 0, 0, 8, 0, 0]"] ;
2 -> 3 ;
4 [label="gini = 0.0\nsamples = 1\nvalue = [0, 0, 0, 0, 1, 0]"] ;
2 -> 4 ;
5 [label="fslah <= 0.5\ngini = 0.739\nsamples = 25\nvalue = [7, 8, 0, 0, 5, 5]"] ;
1 -> 5 ;
6 [label="spaces <= 1.5\ngini = 0.691\nsamples = 18\nvalue = [7, 1, 0, 0, 5, 5]"] ;
5 -> 6 ;
7 [label="length <= 15.5\ngini = 0.639\nsamples = 12\nvalue = [1, 1, 0, 0, 5, 5]"] ;
6 -> 7 ;
8 [label="length <= 5.5\ngini = 0.449\nsamples = 7\nvalue = [1, 1, 0, 0, 5, 0]"] ;
7 -> 8 ;
9 [label="gini = 0.0\nsamples = 1\nvalue = [0, 1, 0, 0, 0, 0]"] ;
8 -> 9 ;
10 [label="length <= 7.5\ngini = 0.278\nsamples = 6\nvalue = [1, 0, 0, 0, 5, 0]"] ;
8 -> 10 ;
11 [label="numeric <= 5.0\ngini = 0.5\nsamples = 2\nvalue = [1, 0, 0, 0, 1, 0]"] ;
10 -> 11 ;
12 [label="gini = 0.0\nsamples = 1\nvalue = [1, 0, 0, 0, 0, 0]"] ;
11 -> 12 ;
13 [label="gini = 0.0\nsamples = 1\nvalue = [0, 0, 0, 0, 1, 0]"] ;
11 -> 13 ;
14 [label="gini = 0.0\nsamples = 4\nvalue = [0, 0, 0, 0, 4, 0]"] ;
10 -> 14 ;
15 [label="gini = 0.0\nsamples = 5\nvalue = [0, 0, 0, 0, 0, 5]"] ;
7 -> 15 ;
16 [label="gini = 0.0\nsamples = 6\nvalue = [6, 0, 0, 0, 0, 0]"] ;
6 -> 16 ;
17 [label="gini = 0.0\nsamples = 7\nvalue = [0, 7, 0, 0, 0, 0]"] ;
5 -> 17 ;
18 [label="gini = 0.0\nsamples = 7\nvalue = [0, 0, 7, 0, 0, 0]"] ;
0 -> 18 [labeldistance=2.5, labelangle=-45, headlabel="False"] ;
}