digraph Tree {
node [shape=box] ;
0 [label="fslah <= 0.5\ngini = 0.74\nsamples = 22\nvalue = [7, 6, 4, 5]"] ;
1 [label="length <= 15.0\ngini = 0.658\nsamples = 15\nvalue = [0, 6, 4, 5]"] ;
0 -> 1 [labeldistance=2.5, labelangle=45, headlabel="True"] ;
2 [label="numeric <= 2.0\ngini = 0.48\nsamples = 10\nvalue = [0, 6, 4, 0]"] ;
1 -> 2 ;
3 [label="length <= 12.5\ngini = 0.245\nsamples = 7\nvalue = [0, 6, 1, 0]"] ;
2 -> 3 ;
4 [label="gini = 0.0\nsamples = 6\nvalue = [0, 6, 0, 0]"] ;
3 -> 4 ;
5 [label="gini = 0.0\nsamples = 1\nvalue = [0, 0, 1, 0]"] ;
3 -> 5 ;
6 [label="gini = 0.0\nsamples = 3\nvalue = [0, 0, 3, 0]"] ;
2 -> 6 ;
7 [label="gini = 0.0\nsamples = 5\nvalue = [0, 0, 0, 5]"] ;
1 -> 7 ;
8 [label="gini = 0.0\nsamples = 7\nvalue = [7, 0, 0, 0]"] ;
0 -> 8 [labeldistance=2.5, labelangle=-45, headlabel="False"] ;
}